{
    "name": "Water Ball 2vs2 NS",
    "description":"Hemispheric planet filled with water. You can build only in water and on the starting metal platforms",
    "version":"1.1",
    "creator":"TheRealF",
    "players":[4, 4],
    "planets": [
        {
            "name": "Water Ball",
            "mass": 35000,
            "position_x": 12625,
            "position_y": 0,
            "velocity_x": -0.00000869889208843233,
            "velocity_y": 199.0074462890625,
            "required_thrust_to_move": 0,
            "starting_planet": true,
            "respawn": false,
            "start_destroyed": false,
            "min_spawn_delay": 0,
            "max_spawn_delay": 0,
            "planet": {
                "seed": 962992704,
                "radius": 700,
                "heightRange": 0,
                "waterHeight": 100,
                "waterDepth": 0,
                "temperature": 50,
                "metalDensity": 0,
                "metalClusters": 0,
                "metalSpotLimit": -1,
                "biomeScale": 50,
                "biome": "earth",
                "symmetryType": "terrain and CSG",
                "symmetricalMetal": false,
                "symmetricalStarts": false,
                "numArmies": 2,
                "landingZonesPerArmy": 0,
                "landingZoneSize": 0
            },
            "planetCSG": [
                {
                    "spec": "/pa/terrain/metal/brushes/metal_cap_03_add.json",
                    "weight": [
                        1,
                        1,
                        1,
                        1
                    ],
                    "proj": "BP_Bend",
                    "op": "BO_Add",
                    "transform": [
                        -3.5493630434757506e-7,
                        -8.119996070861816,
                        0,
                        0,
                        4.839894813812862e-7,
                        -2.1155852338527147e-14,
                        -8.119994163513184,
                        -699.9999389648438,
                        8.1199951171875,
                        -3.5493627592586563e-7,
                        4.839894245378673e-7,
                        0.00004172325134277344
                    ],
                    "scale": [
                        8.119996070861816,
                        8.119996070861816,
                        8.119996070861816
                    ],
                    "rotation": 1.5707963705062866,
                    "position": [
                        0,
                        -199.99998474121094,
                        1.2246062691190825e-14
                    ],
                    "height": 700,
                    "weightHard": false,
                    "weightScale": [
                        1,
                        1,
                        1
                    ],
                    "mirrored": false,
                    "twinId": 0,
                    "flooded": false,
                    "pathable": false,
                    "mergeable": false,
                    "no_features": false
                },
                {
                    "spec": "/pa/terrain/metal/brushes/metal_cap_03_add.json",
                    "weight": [
                        1,
                        1,
                        1,
                        1
                    ],
                    "proj": "BP_Bend",
                    "op": "BO_Add",
                    "transform": [
                        -8.119996070861816,
                        7.098726086951501e-7,
                        0,
                        0,
                        -4.2311704677054293e-14,
                        -4.839894813812862e-7,
                        -8.1199951171875,
                        -699.9999389648438,
                        -7.098725518517313e-7,
                        -8.1199951171875,
                        4.839894813812862e-7,
                        0.00004172325134277344
                    ],
                    "scale": [
                        8.119996070861816,
                        8.119996070861816,
                        8.119996070861816
                    ],
                    "rotation": 3.1415927410125732,
                    "position": [
                        0,
                        -199.99998474121094,
                        1.2246062691190825e-14
                    ],
                    "height": 700,
                    "weightHard": false,
                    "weightScale": [
                        1,
                        1,
                        1
                    ],
                    "mirrored": false,
                    "twinId": 0,
                    "flooded": false,
                    "pathable": false,
                    "mergeable": false,
                    "no_features": false
                },
                {
                    "spec": "/pa/terrain/metal/brushes/metal_cap_03_add.json",
                    "weight": [
                        1,
                        1,
                        1,
                        1
                    ],
                    "proj": "BP_Bend",
                    "op": "BO_Add",
                    "transform": [
                        9.682998580728963e-8,
                        8.119996070861816,
                        0,
                        0,
                        -4.839894813812862e-7,
                        5.771516907649614e-15,
                        -8.1199951171875,
                        -699.9999389648438,
                        -8.1199951171875,
                        9.682997870186227e-8,
                        4.839894813812862e-7,
                        0.00004172325134277344
                    ],
                    "scale": [
                        8.119996070861816,
                        8.119996070861816,
                        8.119996070861816
                    ],
                    "rotation": 4.71238899230957,
                    "position": [
                        0,
                        -199.99998474121094,
                        1.2246062691190825e-14
                    ],
                    "height": 700,
                    "weightHard": false,
                    "weightScale": [
                        1,
                        1,
                        1
                    ],
                    "mirrored": false,
                    "twinId": 0,
                    "flooded": false,
                    "pathable": false,
                    "mergeable": false,
                    "no_features": false
                },
                {
                    "spec": "/pa/terrain/metal/brushes/metal_cap_03_add.json",
                    "weight": [
                        1,
                        1,
                        1,
                        1
                    ],
                    "proj": "BP_Bend",
                    "op": "BO_Add",
                    "transform": [
                        8.119996070861816,
                        -0.0000014197452173903002,
                        0,
                        0,
                        8.462340935410859e-14,
                        4.839894813812862e-7,
                        -8.1199951171875,
                        -699.9999389648438,
                        0.0000014197451037034625,
                        8.1199951171875,
                        4.839894813812862e-7,
                        0.00004172325134277344
                    ],
                    "scale": [
                        8.119996070861816,
                        8.119996070861816,
                        8.119996070861816
                    ],
                    "rotation": 6.2831854820251465,
                    "position": [
                        0,
                        -199.99998474121094,
                        1.2246062691190825e-14
                    ],
                    "height": 700,
                    "weightHard": false,
                    "weightScale": [
                        1,
                        1,
                        1
                    ],
                    "mirrored": false,
                    "twinId": 0,
                    "flooded": false,
                    "pathable": false,
                    "mergeable": false,
                    "no_features": false
                },
                {
                    "spec": "/pa/terrain/metal/brushes/metal_cap_03_sub.json",
                    "weight": [
                        1,
                        1,
                        1,
                        1
                    ],
                    "proj": "BP_Bend",
                    "op": "BO_Subtract",
                    "transform": [
                        -3.564662449662137e-7,
                        -8.154996871948242,
                        0,
                        0,
                        4.860756916968967e-7,
                        -2.1247043905628545e-14,
                        -8.15499496459961,
                        -699.9999389648438,
                        8.154995918273926,
                        -3.564662165445043e-7,
                        4.860756348534778e-7,
                        0.00004172325134277344
                    ],
                    "scale": [
                        8.154996871948242,
                        8.154996871948242,
                        8.154996871948242
                    ],
                    "rotation": 1.5707963705062866,
                    "position": [
                        0,
                        -199.99998474121094,
                        1.2246062691190825e-14
                    ],
                    "height": 700,
                    "weightHard": false,
                    "weightScale": [
                        1,
                        1,
                        1
                    ],
                    "mirrored": false,
                    "twinId": 0,
                    "flooded": true,
                    "pathable": false,
                    "mergeable": false,
                    "no_features": true
                },
                {
                    "spec": "/pa/terrain/metal/brushes/metal_t1_large_8_ramp.json",
                    "weight": [
                        0,
                        0,
                        0,
                        0
                    ],
                    "proj": "BP_Bend",
                    "op": "BO_Add",
                    "transform": [
                        0.9998184442520142,
                        -0.0125997643917799,
                        0.014296173118054867,
                        10.126556396484375,
                        0.0067580267786979675,
                        0.9358961582183838,
                        0.3522111475467682,
                        249.48536682128906,
                        -0.017817510291934013,
                        -0.3520505726337433,
                        0.9358114004135132,
                        662.8729858398438
                    ],
                    "scale": [
                        1,
                        1,
                        1
                    ],
                    "rotation": 0.009999999776482582,
                    "position": [
                        10.112258911132812,
                        249.13311767578125,
                        661.9371337890625
                    ],
                    "height": 708.34033203125,
                    "weightHard": false,
                    "weightScale": [
                        1,
                        1,
                        1
                    ],
                    "mirrored": false,
                    "twinId": 0,
                    "flooded": false,
                    "pathable": true,
                    "mergeable": false,
                    "no_features": true
                },
                {
                    "spec": "/pa/terrain/metal/brushes/metal_t1_large_8_ramp.json",
                    "weight": [
                        0,
                        0,
                        0,
                        0
                    ],
                    "proj": "BP_Bend",
                    "op": "BO_Add",
                    "transform": [
                        0.9969207048416138,
                        -0.07646067440509796,
                        -0.017404353246092796,
                        -12.311450004577637,
                        0.07730540633201599,
                        0.9210534691810608,
                        0.3816863000392914,
                        269.996337890625,
                        0.013153649866580963,
                        0.38185644149780273,
                        -0.9241280555725098,
                        -653.7075805664062
                    ],
                    "scale": [
                        1,
                        1,
                        1
                    ],
                    "rotation": 0.07999999076128006,
                    "position": [
                        -12.311450958251953,
                        269.996337890625,
                        653.70751953125
                    ],
                    "height": 707.3776245117188,
                    "weightHard": false,
                    "weightScale": [
                        1,
                        1,
                        1
                    ],
                    "mirrored": true,
                    "twinId": 0,
                    "flooded": false,
                    "pathable": true,
                    "mergeable": false,
                    "no_features": true
                }
            ],
            "metal_spots": [
                [
                    -10.161357879638672,
                    271.6779479980469,
                    664.6424560546875
                ],
                [
                    -10.71734619140625,
                    232.3294677734375,
                    679.6990356445312
                ],
                [
                    31.023353576660156,
                    233.79080200195312,
                    678.6675415039062
                ],
                [
                    29.77464485168457,
                    272.5682373046875,
                    663.84033203125
                ],
                [
                    88.53545379638672,
                    361.80926513671875,
                    614.135009765625
                ],
                [
                    129.37353515625,
                    358.9822692871094,
                    608.6339111328125
                ],
                [
                    90.01408386230469,
                    325.61639404296875,
                    634.1690673828125
                ],
                [
                    129.69296264648438,
                    323.96728515625,
                    628.1679077148438
                ],
                [
                    91.9835205078125,
                    173.84938049316406,
                    690.044921875
                ],
                [
                    130.90380859375,
                    172.2293243408203,
                    683.6375732421875
                ],
                [
                    91.72441864013672,
                    136.47706604003906,
                    697.8696899414062
                ],
                [
                    131.59689331054688,
                    132.92234802246094,
                    691.6961669921875
                ],
                [
                    -109.64846801757812,
                    171.99691772460938,
                    689.212890625
                ],
                [
                    -69.6919937133789,
                    173.83848571777344,
                    693.8928833007812
                ],
                [
                    -109.35556030273438,
                    131.9345703125,
                    698.4697875976562
                ],
                [
                    -68.68749237060547,
                    134.3272705078125,
                    703.1141357421875
                ],
                [
                    161.310302734375,
                    -607.308837890625,
                    -71.09709930419922
                ],
                [
                    161.310302734375,
                    -607.308837890625,
                    71.09709930419922
                ],
                [
                    73.1240234375,
                    -665.76025390625,
                    -104.58638763427734
                ],
                [
                    73.1240234375,
                    -665.76025390625,
                    104.58638763427734
                ],
                [
                    -38.54243469238281,
                    -671.714599609375,
                    -115.82081604003906
                ],
                [
                    -38.54243469238281,
                    -671.714599609375,
                    115.82081604003906
                ],
                [
                    -110.17605590820312,
                    -643.891845703125,
                    -94.18486022949219
                ],
                [
                    -110.17605590820312,
                    -643.891845703125,
                    94.18486022949219
                ],
                [
                    -194.3399658203125,
                    -598.127685546875,
                    -75.19789123535156
                ],
                [
                    -194.3399658203125,
                    -598.127685546875,
                    75.19789123535156
                ],
                [
                    -159.53904724121094,
                    -619.6649169921875,
                    -39.765647888183594
                ],
                [
                    -159.53904724121094,
                    -619.6649169921875,
                    39.765647888183594
                ],
                [
                    21.08685302734375,
                    -677.505126953125,
                    -57.751487731933594
                ],
                [
                    21.08685302734375,
                    -677.505126953125,
                    57.751487731933594
                ],
                [
                    -42.295440673828125,
                    -677.6689453125,
                    -45.55873107910156
                ],
                [
                    -42.295440673828125,
                    -677.6689453125,
                    45.55873107910156
                ],
                [
                    123.54447174072266,
                    -665.4078369140625,
                    -32.406593322753906
                ],
                [
                    123.54447174072266,
                    -665.4078369140625,
                    32.406593322753906
                ],
                [
                    169.82447814941406,
                    -609.7432861328125,
                    -15.901466369628906
                ],
                [
                    169.82447814941406,
                    -609.7432861328125,
                    15.901466369628906
                ],
                [
                    166.79705810546875,
                    -601.58447265625,
                    -99.2314453125
                ],
                [
                    166.79705810546875,
                    -601.58447265625,
                    99.2314453125
                ],
                [
                    73.7492904663086,
                    -600.263916015625,
                    -187.10638427734375
                ],
                [
                    73.7492904663086,
                    -600.263916015625,
                    187.10638427734375
                ],
                [
                    -6.3785400390625,
                    -599.0582275390625,
                    -204.56198120117188
                ],
                [
                    -6.3785400390625,
                    -599.0582275390625,
                    204.56198120117188
                ],
                [
                    -131.2974090576172,
                    -507.4095458984375,
                    -218.56619262695312
                ],
                [
                    -131.2974090576172,
                    -507.4095458984375,
                    218.56619262695312
                ],
                [
                    240.15127563476562,
                    -525.63623046875,
                    -47.96002197265625
                ],
                [
                    240.15127563476562,
                    -525.63623046875,
                    47.96002197265625
                ],
                [
                    99.8636474609375,
                    -491.36865234375,
                    -267.48992919921875
                ],
                [
                    99.8636474609375,
                    -491.36865234375,
                    267.48992919921875
                ],
                [
                    -102.14352416992188,
                    -503.533447265625,
                    -242.0894012451172
                ],
                [
                    -102.14352416992188,
                    -503.533447265625,
                    242.0894012451172
                ],
                [
                    -150.67709350585938,
                    -490.753173828125,
                    -243.39906311035156
                ],
                [
                    -150.67709350585938,
                    -490.753173828125,
                    243.39906311035156
                ],
                [
                    126.43124389648438,
                    476.9449462890625,
                    496.02490234375
                ],
                [
                    69.17620849609375,
                    477.02874755859375,
                    505.7275390625
                ],
                [
                    125.91759490966797,
                    512.289794921875,
                    460.17608642578125
                ],
                [
                    65.36441040039062,
                    511.7847900390625,
                    471.70697021484375
                ],
                [
                    126.90437316894531,
                    551.3228759765625,
                    412.699462890625
                ],
                [
                    59.68183898925781,
                    556.2896728515625,
                    419.8228759765625
                ],
                [
                    124.73625183105469,
                    588.4841918945312,
                    357.6585388183594
                ],
                [
                    124.73625183105469,
                    588.4841918945312,
                    -357.6585388183594
                ],
                [
                    53.72911834716797,
                    593.3382568359375,
                    366.6841735839844
                ],
                [
                    122.80262756347656,
                    620.7732543945312,
                    300.15338134765625
                ],
                [
                    122.80262756347656,
                    620.7732543945312,
                    -300.15338134765625
                ],
                [
                    46.14982604980469,
                    624.07958984375,
                    312.4328308105469
                ],
                [
                    46.14982604980469,
                    624.07958984375,
                    -312.4328308105469
                ],
                [
                    117.70390319824219,
                    643.7387084960938,
                    249.2198486328125
                ],
                [
                    117.70390319824219,
                    643.7387084960938,
                    -249.2198486328125
                ],
                [
                    40.43328857421875,
                    647.5242309570312,
                    262.1465148925781
                ],
                [
                    40.43328857421875,
                    647.5242309570312,
                    -262.1465148925781
                ],
                [
                    115.2264404296875,
                    664.0689697265625,
                    190.50302124023438
                ],
                [
                    115.2264404296875,
                    664.0689697265625,
                    -190.50302124023438
                ],
                [
                    38.48876953125,
                    670.9058837890625,
                    196.96096801757812
                ],
                [
                    38.48876953125,
                    670.9058837890625,
                    -196.96096801757812
                ],
                [
                    117.12159729003906,
                    678.3164672851562,
                    128.80844116210938
                ],
                [
                    117.12159729003906,
                    678.3164672851562,
                    -128.80844116210938
                ],
                [
                    29.970169067382812,
                    685.7919311523438,
                    133.93621826171875
                ],
                [
                    29.970169067382812,
                    685.7919311523438,
                    -133.93621826171875
                ],
                [
                    -91.85496520996094,
                    479.17620849609375,
                    -498.27801513671875
                ],
                [
                    -91.85496520996094,
                    479.17620849609375,
                    498.27801513671875
                ],
                [
                    -154.71246337890625,
                    475.284912109375,
                    -486.08740234375
                ],
                [
                    -154.71246337890625,
                    475.284912109375,
                    486.08740234375
                ],
                [
                    -85.94125366210938,
                    517.6561279296875,
                    -459.60736083984375
                ],
                [
                    -85.94125366210938,
                    517.6561279296875,
                    459.60736083984375
                ],
                [
                    -150.5541534423828,
                    516.8411865234375,
                    -443.06829833984375
                ],
                [
                    -150.5541534423828,
                    516.8411865234375,
                    443.06829833984375
                ],
                [
                    -79.880859375,
                    563.8043212890625,
                    -403.6817626953125
                ],
                [
                    -79.880859375,
                    563.8043212890625,
                    403.6817626953125
                ],
                [
                    -149.83053588867188,
                    560.3695678710938,
                    -387.77935791015625
                ],
                [
                    -149.83053588867188,
                    560.3695678710938,
                    387.77935791015625
                ],
                [
                    -68.5399169921875,
                    600.6970825195312,
                    -350.079345703125
                ],
                [
                    -68.5399169921875,
                    600.6970825195312,
                    350.079345703125
                ],
                [
                    -139.05531311035156,
                    598.304931640625,
                    -333.48785400390625
                ],
                [
                    -139.05531311035156,
                    598.304931640625,
                    333.48785400390625
                ],
                [
                    -69.03793334960938,
                    631.3297729492188,
                    -291.36846923828125
                ],
                [
                    -69.03793334960938,
                    631.3297729492188,
                    291.36846923828125
                ],
                [
                    -129.36375427246094,
                    629.4362182617188,
                    -275.24542236328125
                ],
                [
                    -129.36375427246094,
                    629.4362182617188,
                    275.24542236328125
                ],
                [
                    -58.082672119140625,
                    657.0518798828125,
                    -231.7508544921875
                ],
                [
                    -58.082672119140625,
                    657.0518798828125,
                    231.7508544921875
                ],
                [
                    -122.38650512695312,
                    657.1431884765625,
                    -206.71417236328125
                ],
                [
                    -122.38650512695312,
                    657.1431884765625,
                    206.71417236328125
                ],
                [
                    -50.174957275390625,
                    676.074462890625,
                    -171.38067626953125
                ],
                [
                    -50.174957275390625,
                    676.074462890625,
                    171.38067626953125
                ],
                [
                    -39.061737060546875,
                    689.6983642578125,
                    -105.13018798828125
                ],
                [
                    -39.061737060546875,
                    689.6983642578125,
                    105.13018798828125
                ],
                [
                    -102.26345825195312,
                    688.0682373046875,
                    -66.80511474609375
                ],
                [
                    -102.26345825195312,
                    688.0682373046875,
                    66.80511474609375
                ],
                [
                    170.20603942871094,
                    671.4010009765625,
                    102.52764892578125
                ],
                [
                    170.20603942871094,
                    671.4010009765625,
                    -102.52764892578125
                ],
                [
                    177.83660888671875,
                    675.3712158203125,
                    45.0421142578125
                ],
                [
                    177.83660888671875,
                    675.3712158203125,
                    -45.0421142578125
                ],
                [
                    111.11293029785156,
                    688.91259765625,
                    37.62103271484375
                ],
                [
                    111.11293029785156,
                    688.91259765625,
                    -37.62103271484375
                ],
                [
                    66.75765991210938,
                    692.3768310546875,
                    67.05755615234375
                ],
                [
                    66.75765991210938,
                    692.3768310546875,
                    -67.05755615234375
                ],
                [
                    8.849357604980469,
                    695.964111328125,
                    57.75933837890625
                ],
                [
                    8.849357604980469,
                    695.964111328125,
                    -57.75933837890625
                ],
                [
                    -26.2369384765625,
                    696.8436279296875,
                    41.86328125
                ],
                [
                    -26.2369384765625,
                    696.8436279296875,
                    -41.86328125
                ],
                [
                    -61.896663665771484,
                    695.55908203125,
                    20.396240234375
                ],
                [
                    -61.896663665771484,
                    695.55908203125,
                    -20.396240234375
                ],
                [
                    226.33651733398438,
                    661.4627685546875,
                    30.85064697265625
                ],
                [
                    226.33651733398438,
                    661.4627685546875,
                    -30.85064697265625
                ],
                [
                    -117.34576416015625,
                    688.2823486328125,
                    19.79193115234375
                ],
                [
                    -117.34576416015625,
                    688.2823486328125,
                    -19.79193115234375
                ],
                [
                    -184.84567260742188,
                    672.1246337890625,
                    45.58819580078125
                ],
                [
                    -184.84567260742188,
                    672.1246337890625,
                    -45.58819580078125
                ],
                [
                    -218.99044799804688,
                    654.691650390625,
                    111.13336181640625
                ],
                [
                    -218.99044799804688,
                    654.691650390625,
                    -111.13336181640625
                ],
                [
                    -289.7519226074219,
                    630.4771728515625,
                    86.6444091796875
                ],
                [
                    -289.7519226074219,
                    630.4771728515625,
                    -86.6444091796875
                ],
                [
                    -330.7012023925781,
                    610.1190185546875,
                    85.23553466796875
                ],
                [
                    -330.7012023925781,
                    610.1190185546875,
                    -85.23553466796875
                ],
                [
                    -366.46807861328125,
                    572.98388671875,
                    162.49420166015625
                ],
                [
                    -366.46807861328125,
                    572.98388671875,
                    -162.49420166015625
                ],
                [
                    -417.417236328125,
                    555.2105712890625,
                    83.93017578125
                ],
                [
                    -417.417236328125,
                    555.2105712890625,
                    -83.93017578125
                ],
                [
                    -469.9420471191406,
                    516.6705322265625,
                    45.448486328125
                ],
                [
                    -469.9420471191406,
                    516.6705322265625,
                    -45.448486328125
                ],
                [
                    -343.4034423828125,
                    608.476806640625,
                    29.038330078125
                ],
                [
                    -343.4034423828125,
                    608.476806640625,
                    -29.038330078125
                ],
                [
                    277.1182861328125,
                    640.7474365234375,
                    51.18072509765625
                ],
                [
                    277.1182861328125,
                    640.7474365234375,
                    -51.18072509765625
                ],
                [
                    305.0538330078125,
                    614.5255126953125,
                    140.13739013671875
                ],
                [
                    305.0538330078125,
                    614.5255126953125,
                    -140.13739013671875
                ],
                [
                    404.4453125,
                    564.099365234375,
                    100.41815185546875
                ],
                [
                    404.4453125,
                    564.099365234375,
                    -100.41815185546875
                ],
                [
                    522.8541259765625,
                    451.13427734375,
                    127.56787109375
                ],
                [
                    522.8541259765625,
                    451.13427734375,
                    -127.56787109375
                ],
                [
                    384.45208740234375,
                    583.8253173828125,
                    32.18597412109375
                ],
                [
                    384.45208740234375,
                    583.8253173828125,
                    -32.18597412109375
                ],
                [
                    515.76611328125,
                    472.4505615234375,
                    53.59991455078125
                ],
                [
                    515.76611328125,
                    472.4505615234375,
                    -53.59991455078125
                ],
                [
                    599.8505249023438,
                    358.818603515625,
                    68.58642578125
                ],
                [
                    599.8505249023438,
                    358.818603515625,
                    -68.58642578125
                ],
                [
                    636.8876953125,
                    266.813232421875,
                    131.42852783203125
                ],
                [
                    636.8876953125,
                    266.813232421875,
                    -131.42852783203125
                ],
                [
                    662.1025390625,
                    236.287353515625,
                    38.598388671875
                ],
                [
                    662.1025390625,
                    236.287353515625,
                    -38.598388671875
                ],
                [
                    701.757080078125,
                    47.582763671875,
                    55.518310546875
                ],
                [
                    701.757080078125,
                    47.582763671875,
                    -55.518310546875
                ],
                [
                    680.144775390625,
                    119.904052734375,
                    137.8597412109375
                ],
                [
                    680.144775390625,
                    119.904052734375,
                    -137.8597412109375
                ],
                [
                    695.780517578125,
                    -11.854248046875,
                    108.15338134765625
                ],
                [
                    695.780517578125,
                    -11.854248046875,
                    -108.15338134765625
                ],
                [
                    -479.821044921875,
                    489.45361328125,
                    140.3485107421875
                ],
                [
                    -479.821044921875,
                    489.45361328125,
                    -140.3485107421875
                ],
                [
                    -540.2178955078125,
                    441.26025390625,
                    52.79949951171875
                ],
                [
                    -540.2178955078125,
                    441.26025390625,
                    -52.79949951171875
                ],
                [
                    -590.15234375,
                    363.178466796875,
                    100.14913940429688
                ],
                [
                    -590.15234375,
                    363.178466796875,
                    -100.14913940429688
                ],
                [
                    -638.207275390625,
                    277.580810546875,
                    85.5137939453125
                ],
                [
                    -638.207275390625,
                    277.580810546875,
                    -85.5137939453125
                ],
                [
                    -617.32568359375,
                    327.9462890625,
                    47.1226806640625
                ],
                [
                    -617.32568359375,
                    327.9462890625,
                    -47.1226806640625
                ],
                [
                    -641.7645263671875,
                    211.00048828125,
                    192.8758544921875
                ],
                [
                    -641.7645263671875,
                    211.00048828125,
                    -192.8758544921875
                ],
                [
                    -685.850830078125,
                    115.305419921875,
                    92.8671875
                ],
                [
                    -685.850830078125,
                    115.305419921875,
                    -92.8671875
                ],
                [
                    -672.73095703125,
                    78.708740234375,
                    181.48008728027344
                ],
                [
                    -672.73095703125,
                    78.708740234375,
                    -181.48008728027344
                ],
                [
                    -111.03280639648438,
                    676.30322265625,
                    -139.23876953125
                ],
                [
                    -111.03280639648438,
                    676.30322265625,
                    139.23876953125
                ],
                [
                    -111.77719116210938,
                    356.58941650390625,
                    611.6953735351562
                ],
                [
                    -70.32019805908203,
                    358.43408203125,
                    616.653564453125
                ],
                [
                    -110.22894287109375,
                    321.86767578125,
                    631.635498046875
                ],
                [
                    -71.55602264404297,
                    322.06048583984375,
                    636.9855346679688
                ],
                [
                    62.82749938964844,
                    351.3468017578125,
                    -622.5580444335938
                ],
                [
                    102.47843933105469,
                    351.4714050292969,
                    -617.244873046875
                ],
                [
                    58.12669372558594,
                    385.66644287109375,
                    -601.6461791992188
                ],
                [
                    99.63664245605469,
                    386.1520080566406,
                    -595.9677734375
                ],
                [
                    114.5509033203125,
                    203.12493896484375,
                    -678.1346435546875
                ],
                [
                    74.32854461669922,
                    202.37100219726562,
                    -684.11181640625
                ],
                [
                    77.28803253173828,
                    163.0350341796875,
                    -693.647705078125
                ],
                [
                    117.3763427734375,
                    163.9079132080078,
                    -687.5001831054688
                ],
                [
                    -123.08773803710938,
                    145.78262329101562,
                    -692.5004272460938
                ],
                [
                    -126.55683898925781,
                    184.91964721679688,
                    -682.0262451171875
                ],
                [
                    -86.32186889648438,
                    190.369140625,
                    -686.8150634765625
                ],
                [
                    -82.74827575683594,
                    150.5155029296875,
                    -697.4911499023438
                ],
                [
                    -138.76852416992188,
                    332.6294250488281,
                    -619.466796875
                ],
                [
                    -98.38412475585938,
                    337.7502136230469,
                    -624.025634765625
                ],
                [
                    -100.950927734375,
                    372.72698974609375,
                    -602.6873779296875
                ],
                [
                    -141.5087127685547,
                    367.02838134765625,
                    -598.2018432617188
                ],
                [
                    -31.141834259033203,
                    253.4570770263672,
                    -670.4393310546875
                ],
                [
                    -34.35381317138672,
                    290.76629638671875,
                    -654.7079467773438
                ],
                [
                    6.360818862915039,
                    293.769287109375,
                    -654.2647094726562
                ],
                [
                    9.419720649719238,
                    256.3072509765625,
                    -670.2162475585938
                ],
                [
                    38.906524658203125,
                    477.8670654296875,
                    -507.623779296875
                ],
                [
                    116.28016662597656,
                    478.50347900390625,
                    -496.7402648925781
                ],
                [
                    42.082725524902344,
                    514.93896484375,
                    -470.69366455078125
                ],
                [
                    119.37026977539062,
                    509.686767578125,
                    -464.54119873046875
                ],
                [
                    40.15753936767578,
                    556.4835205078125,
                    -421.7867431640625
                ],
                [
                    123.00850677490234,
                    550.2012939453125,
                    -415.26300048828125
                ],
                [
                    43.01659393310547,
                    596.1240844726562,
                    -363.3603515625
                ]
            ],
            "landing_zones": {
                "list": [
                    [
                        -128.00733947753906,
                        246.676513671875,
                        662.223388671875
                    ],
                    [
                        153.97415161132812,
                        258.52886962890625,
                        652.250244140625
                    ],
                    [
                        -147.53012084960938,
                        243.421142578125,
                        -658.568115234375
                    ],
                    [
                        134.00885009765625,
                        248.81646728515625,
                        -659.537109375
                    ]
                ],
                "rules": [
                    {
                        "min": 0,
                        "max": 10
                    },
                    {
                        "min": 0,
                        "max": 10
                    },
                    {
                        "min": 0,
                        "max": 10
                    },
                    {
                        "min": 0,
                        "max": 10
                    }
                ]
            }
        }
    ]
}